{
  "capas": [
    {
      "w": [
        [
          -0.37496143247083064,
          0.2928545636571424,
          -0.06857982403714745,
          0.3726313016047034,
          -0.07873939743406662,
          0.15717042383646912,
          0.1156826351110802,
          1.0354238333721448,
          -0.03593956088111488,
          0.46529051151647166
        ],
        [
          0.24014453535780952,
          1.6976795517093035,
          -0.2064506140514618,
          1.3523764399295317,
          0.1689423669854264,
          1.4934417034513607,
          0.17515851320131073,
          1.722122297207856,
          -1.1092555933455304,
          1.6513690529582603
        ],
        [
          0.7174006358654957,
          3.405437868259509,
          -0.17734133585794945,
          2.9305138540855133,
          -0.13481238403018062,
          3.5024059069450852,
          0.5962459130544661,
          3.268906455916972,
          -1.022162278345072,
          3.2301032732374373
        ],
        [
          0.16971861248889472,
          2.84063963910195,
          -0.5560140621949288,
          2.388649686195547,
          0.3703907932470082,
          2.7882542820944316,
          0.19712064974271762,
          2.717424974080434,
          -1.0027598460995206,
          2.715496851205707
        ],
        [
          -0.21488414324681365,
          0.9675471925976564,
          -0.27945159424495314,
          0.6327054936923124,
          0.1443428544821156,
          0.6975176467284394,
          -0.12800637703268447,
          1.297559051276799,
          -0.9156074939807788,
          0.9989078919502201
        ],
        [
          0.37760913147707403,
          0.35750016223498765,
          -0.048745726124809347,
          0.3402345975597759,
          -0.39361839204582716,
          0.22715691106342453,
          -0.3373989616715792,
          0.92825161345345,
          -0.17156095759655143,
          0.46986630955987685
        ],
        [
          0.6874915731872197,
          -1.1459778955231525,
          0.4834417141481122,
          -2.44101401255158,
          0.6670960615208261,
          -1.814564464057295,
          0.6604996130386381,
          -0.0028801962534789637,
          0.2412099000887471,
          -2.9378665404295425
        ],
        [
          1.34743616684692,
          4.965363137946811,
          0.31386016382697834,
          4.858797545563492,
          0.6554947176617206,
          5.67276223922219,
          0.8275074446443712,
          5.300495219397906,
          1.3027665158678845,
          4.582829499297192
        ],
        [
          -0.11702896449679127,
          0.09490601359734743,
          -0.24624287188880237,
          0.05691395120412794,
          -0.3952354758157815,
          -0.17324086722688134,
          -0.1691895551592409,
          0.517042335152018,
          -0.1370163543604272,
          0.11507382602190004
        ],
        [
          -0.4067836149896065,
          0.6473762657833255,
          0.6190027404206135,
          0.6352000322245114,
          -0.6043947341826246,
          0.4663571081320574,
          -0.19579726332125894,
          1.2893366301703193,
          -0.49919708991549455,
          0.8854848200647287
        ]
      ],
      "b": [
        -2.850414886227842,
        -6.615505297566053,
        -12.463788088814384,
        -10.35825225487341,
        -4.323610480072983,
        -2.953710669400028,
        0.4396450235929256,
        -10.674620730103774,
        -2.267138490626982,
        -3.334975029313257
      ]
    },
    {
      "w": [
        [
          -1.2732973408073005,
          -0.6087842380938308,
          -0.9603482003354838,
          -0.5001108095116698,
          -0.5094792452017917,
          -1.0297248158569334,
          -0.062344158602609376,
          -4.572932667067624,
          -0.7176981469057818,
          -0.9410693469316034
        ],
        [
          -0.3431025466397858,
          -0.2701511704786136,
          -1.2417077887610883,
          -1.4742332664059585,
          -0.9104625717923015,
          -0.16774436851464605,
          -1.0064172247428813,
          -0.4236701818895346,
          -0.41238270105826763,
          0.03705545842713279
        ],
        [
          -1.0141529424390863,
          -0.9186112113207039,
          -1.4611154281097676,
          -1.5308369969057765,
          -1.7719284133577904,
          -1.228785482362687,
          1.601119594377955,
          -4.616322054886311,
          -1.1355648883723137,
          -2.547077792354702
        ],
        [
          -0.9011952830244484,
          -1.0865395928359327,
          -1.3257693084388553,
          -1.386239212092401,
          -0.9314803386987517,
          -0.8329363026948371,
          -0.0882530320282145,
          -2.9124741694496286,
          -1.3636730518946025,
          -1.277163357310977
        ],
        [
          0.055606806715548504,
          -1.6456168206503734,
          -4.6601843645107595,
          -3.4117742808976157,
          -0.19992741203504166,
          -0.10473556875720748,
          1.1274136327036555,
          5.003869521434684,
          0.10952947963348955,
          -0.008346727590599592
        ],
        [
          -1.3192093113110437,
          -0.38002628808017946,
          -1.4272804777692178,
          -0.93914396536743,
          -1.4067859947200199,
          -0.95730375253052,
          0.048427311491851345,
          -3.374870705826181,
          -0.7367255285693799,
          -1.2327703939106764
        ],
        [
          -0.9402509014846764,
          -0.01829710845995041,
          -0.9944382458846673,
          -0.6745282544256652,
          -1.1805710658708297,
          -1.1360313609614114,
          -0.31175639243696784,
          -0.7441468451495554,
          -0.6043905881601431,
          -1.2041272955547
        ],
        [
          -1.9203235624320627,
          -1.3425014803358197,
          -1.8522675638642971,
          -1.3814387647441453,
          -1.5171437370158116,
          -1.5028445114336098,
          2.7763366955935695,
          -8.638774590723767,
          -0.9925799377895177,
          -2.1431251798410678
        ],
        [
          -1.0090230721152784,
          -1.0999753383854343,
          -1.6262952276848257,
          -1.383031269121442,
          -1.1858047362616955,
          -0.7534166089324564,
          -0.18133958286533833,
          1.279494993821675,
          -1.0047188872060921,
          -1.254533663542056
        ],
        [
          0.275419020475745,
          0.2375867971397977,
          -1.4318995425754515,
          -1.3448252573827122,
          -0.28476704652498014,
          0.3499103855757802,
          -1.0262147342052759,
          -1.6547050746160896,
          -0.26677637942853605,
          0.137648257934501
        ]
      ],
      "b": [
        -1.3267135468155422,
        -1.6800324237860613,
        -1.3064041213408546,
        -1.8285681173341186,
        -4.147927756291339,
        -1.7818046924654345,
        -1.3755390492445094,
        -0.6422570379511992,
        -2.7041629372768097,
        -1.2300823602030897
      ]
    },
    {
      "w": [
        [
          -0.07456999557496696,
          1.32926175664899,
          -2.4119854813019694,
          -0.5610544404280013,
          1.1348417327160947,
          -0.7605521008576914,
          0.8972791774664585,
          -3.0353129794739773,
          0.5710985598254213,
          2.282488094175961
        ],
        [
          0.6764618381755788,
          -0.5736315827497297,
          0.01109246282867377,
          0.30205624243993917,
          -0.5286448427605536,
          0.376097101936282,
          -0.5906786860123872,
          0.5580322525327289,
          -1.5267560957166468,
          0.18390835372295017
        ],
        [
          0.9247868031441113,
          -2.332714176429381,
          0.19107179782853512,
          -0.18734701817862598,
          -1.150163165603372,
          -0.1904532330933597,
          -1.0044048754828057,
          2.766937591322113,
          -0.8155184480336637,
          -0.6558480061133034
        ],
        [
          1.1683782780877785,
          -2.040988931036331,
          0.47247199009611723,
          -0.8401161774618092,
          -2.058745284530993,
          -0.2242248688871876,
          -0.5347901985767178,
          3.30931467009914,
          -1.3728839159792694,
          -0.10327641437318819
        ],
        [
          -0.6298834522594777,
          -2.3461773229366276,
          -1.8747565119994136,
          -1.143992941499666,
          -1.4152873525589391,
          -1.4496150912797978,
          -0.9516264153238252,
          -0.9503292956536726,
          -0.9924945327967163,
          -0.7324130415813612
        ],
        [
          -0.7729515376181969,
          -2.5776348207703403,
          -1.794346006548863,
          -1.2536856222196777,
          -1.5863667418513956,
          -1.2885902705693364,
          -0.9468094623621908,
          -0.37340555194786706,
          -1.0118599151384384,
          -1.1741383820730857
        ],
        [
          -0.3914190508421636,
          -2.5374783978682096,
          -1.682327890341688,
          -1.5323125026639857,
          -1.7654930832367521,
          -1.6619549515392524,
          -0.5883973530420169,
          -0.5486188424166686,
          -1.6755250090526659,
          -1.0580239937485416
        ],
        [
          -0.4509889407279026,
          -2.754033342823879,
          -2.048682756486386,
          -1.3756300340828456,
          -1.7933911307302657,
          -1.1445675825047543,
          -1.0295378537575104,
          -0.576093397964318,
          -1.3287832245869744,
          -0.9619611546468909
        ],
        [
          -0.6904861426344916,
          -2.7130384263208924,
          -2.007947016748889,
          -1.544326201138477,
          -1.6720118188623203,
          -1.3479548928388936,
          -0.5946693009189663,
          -0.8698948555234359,
          -0.9243829852247984,
          -0.7174743437435885
        ],
        [
          -0.5731641968552448,
          -3.188587507025441,
          -1.5736251579422567,
          -1.2224871225421958,
          -1.9628747305413698,
          -1.4332412081365844,
          -0.724196634503852,
          -0.7170819435677486,
          -1.3859658204076164,
          -0.9911702127390823
        ]
      ],
      "b": [
        -0.7472339474571543,
        0.1076168948859022,
        -2.3280475689294287,
        -2.8904251121880127,
        -4.520604240567202,
        -5.412583941347958,
        -5.532247595072549,
        -5.916421981793077,
        -5.980504708672333,
        -5.867817588160874
      ]
    }
  ]
}