{
  "capas": [
    {
      "w": [
        [
          0.45945016686631046,
          0.08134141746151437,
          0.02670095381990201,
          0.12736375490131796,
          0.05899781127153162,
          0.052392320670817887,
          0.22387791187836525,
          -0.041124326863951684,
          0.7833939190991797,
          -0.4389515894408391
        ],
        [
          0.5141345922580582,
          0.9232060977837612,
          0.0537598885796407,
          1.0207290499208255,
          0.39110658156911354,
          0.6550373782181623,
          0.3420051532108151,
          0.3118405454814536,
          0.2286492867742756,
          0.8556009839059828
        ],
        [
          0.09469716403150903,
          -0.21266097631948544,
          0.4363572056235534,
          -0.4101560682901904,
          0.5509336394902041,
          -0.3057189290755843,
          0.31376908704036627,
          0.14242394330783104,
          -0.29142651989913176,
          -0.09326972108138978
        ],
        [
          0.21677442700586969,
          0.04965319277066794,
          0.1375691819994023,
          -1.2245642087823396,
          0.4067866399874527,
          -0.4525746543113851,
          -0.19110685249092768,
          -0.5344234067025458,
          0.26443074967102775,
          -1.5036293617887633
        ],
        [
          0.2172007476595352,
          2.8630561548427376,
          -0.5296185938289624,
          2.550853503003887,
          0.29506145831675423,
          2.9581093842276567,
          0.3092791231033248,
          2.6045027079976526,
          -1.0483236511685046,
          2.663926901397113
        ],
        [
          0.6140075991304275,
          3.5377137836019132,
          0.538644652939659,
          3.829652507339476,
          0.20538781250471455,
          4.317240087965752,
          0.4883233511900745,
          3.866213193051463,
          0.7615674561059698,
          3.5394575505868606
        ],
        [
          0.37806008524152696,
          1.0289662243753936,
          0.0466659364672982,
          0.5714288915947427,
          0.3525972849941922,
          0.9074734764206505,
          0.03269375501961552,
          1.1598730135555846,
          0.01142101431216831,
          1.202167523632381
        ],
        [
          0.34003065511098846,
          1.6262077483057846,
          0.3314104898540912,
          1.4679777913679173,
          -0.38345837958815154,
          1.8084036498670149,
          0.18635229402151382,
          1.869025500864687,
          -0.36850324274875923,
          1.6496422477428792
        ],
        [
          -0.025103532462922032,
          -0.6081942295338221,
          0.2677449604218137,
          -1.4094141189131584,
          0.0817287834498987,
          -0.30170697566088134,
          0.09932403511640849,
          0.40877485751844617,
          -0.6068537620189021,
          -0.7681548397793411
        ],
        [
          -0.12598405658684045,
          1.5626262680389713,
          0.1259040802572631,
          1.1162350454775267,
          -0.15537730045621134,
          1.1852288843234353,
          0.44847975704204346,
          1.611279146409185,
          -0.7913019531830069,
          1.2879982777110768
        ]
      ],
      "b": [
        -0.9616192653446357,
        -2.570973020154421,
        -1.1363155565805099,
        -0.27784055748965025,
        -9.86234263781964,
        -7.8019364154371935,
        -3.315953637258165,
        -5.198407357358145,
        -0.5781888363911736,
        -4.139735212293435
      ]
    },
    {
      "w": [
        [
          -0.6916433066078005,
          -1.208875415806086,
          -0.06121453305053093,
          -0.3907653168955499,
          -0.7844196481141279,
          -1.9070279332886466,
          -0.7569088855622715,
          -0.5984749032420901,
          -0.33622957173831153,
          -0.2386890858836128
        ],
        [
          -0.1209337072594399,
          -1.2774191230780216,
          -0.09358479616670584,
          0.41901971229282364,
          -1.2473749567769394,
          -2.526102603515678,
          -0.48505883690849527,
          -1.5526985466060736,
          0.14626142164240188,
          -1.118849012438937
        ],
        [
          -0.9508074595385154,
          -1.0199621409100434,
          -0.8452939406880393,
          -0.14593878909333358,
          -1.2999651843270554,
          -1.1689221968133348,
          -0.5218601402606472,
          -1.3738372358384852,
          -0.36882237254483696,
          -0.46988914197654985
        ],
        [
          -0.20007529954820377,
          -1.1003965285301476,
          -0.1367301754107997,
          1.1090096569628467,
          -4.766391927533995,
          3.377243802056955,
          -1.3671965296668869,
          -2.285354389335848,
          0.5321402368396805,
          -1.865395182245289
        ],
        [
          -0.5791763243400699,
          -1.2129701907584904,
          -0.4157962532835062,
          0.8923269030842158,
          -1.3986678537769857,
          -4.654212996255817,
          -0.8179760540565849,
          -1.9653776757436163,
          0.7977471453635138,
          -1.1790505360077173
        ],
        [
          -0.8273837385438076,
          -0.21852045809391316,
          -0.7999682157944561,
          -0.7360474312452153,
          -0.20493067744472948,
          -1.9375007372213828,
          -0.20846577746986625,
          -0.9411431518913884,
          -0.08532589233069934,
          -0.7485684285118391
        ],
        [
          -0.9461005306993548,
          -1.0952119661577826,
          -0.1730760066125002,
          -0.2853172826581072,
          -0.9453665759502443,
          -1.9288308719571352,
          -0.7470010218436561,
          -0.9676144011023443,
          -1.2342032711191162E-4,
          -0.9134052446594452
        ],
        [
          -0.7945501817575877,
          -1.1540032087239875,
          0.005736068935973609,
          0.059826127997174475,
          -1.1024533014551992,
          -1.8462853128245829,
          -0.8833828188988709,
          -1.5618946732940273,
          -0.18600388984535485,
          -0.814147930117075
        ],
        [
          -1.390437383515665,
          -0.4868060099999216,
          -0.7897757212384825,
          -0.11228182177904547,
          -0.605957508251785,
          0.09707221027444544,
          -0.5770260718914051,
          -0.7915446202921104,
          -0.783575976729514,
          -0.6600187012151121
        ],
        [
          -0.23616411438017976,
          -0.6696850838408239,
          -0.04192690722527811,
          0.6863786330831602,
          -2.0408743934288855,
          -4.319321612852287,
          -0.9438228718286711,
          -2.0855421834629246,
          0.9007784896878139,
          -0.8039301427605327
        ]
      ],
      "b": [
        -1.2616725582021928,
        -0.7072868831714899,
        -1.1373240970542347,
        1.8326905513688732,
        -0.12040170470255215,
        -1.0658664433199165,
        -0.6938843242851365,
        -0.6682230840458387,
        -1.5890497154914944,
        1.1465293232900309
      ]
    },
    {
      "w": [
        [
          -0.88111956649112,
          -1.9932752468022348,
          -0.9189632211433297,
          1.4747643931684118,
          -2.3149740929188645,
          -0.22906791720895922,
          -1.0196446970516946,
          -1.3745124858124227,
          0.581579743432268,
          0.1664709870078155
        ],
        [
          0.32502602778893686,
          -0.11926979815294106,
          0.003398664853398414,
          -0.8589820544208171,
          -0.6852247791850025,
          0.6308154116879212,
          0.3838127383103933,
          0.2326029774536561,
          0.10656610736581354,
          0.9769778966440775
        ],
        [
          -0.6769961184188683,
          -0.2781771628860322,
          -1.1432931875416166,
          -1.3468322851655192,
          1.5570637805475878,
          0.11619953018869833,
          -0.0829494954010195,
          -0.008278885913974814,
          -0.4229922256302672,
          1.585757350294205
        ],
        [
          -0.4877070571552254,
          4.480848476115264E-4,
          -1.5774287338519515,
          -1.6848711129030438,
          0.9435726898574697,
          -0.34099953730062726,
          -0.15151580634954967,
          -0.501940422277538,
          -0.8489324951583486,
          3.004330919064514
        ],
        [
          -0.8473823562933395,
          -1.5183720967436736,
          -2.378830455208589,
          -1.6840179953666263,
          -0.6704687211748843,
          -0.4084582491896885,
          -0.8816803332467403,
          -1.3959702019723677,
          -1.0073419256029534,
          -1.5046952717383957
        ],
        [
          -0.7394790901133645,
          -2.3104666951011907,
          -2.735634072341079,
          -1.5835466270020153,
          -0.6432142322649491,
          -1.3505204693255477,
          -0.4059811635560267,
          -1.103465065842118,
          -1.4590599713053034,
          -1.63109412834195
        ],
        [
          -0.7667373721030065,
          -1.996710145266398,
          -2.455894580543926,
          -1.8915995059365711,
          -1.2063981870620688,
          -0.4911639677436217,
          -1.0871713088022563,
          -1.4221231608741025,
          -1.2560145375936345,
          -0.9014323941281036
        ],
        [
          -0.9693813885310134,
          -2.1025424783535116,
          -2.270023630328876,
          -1.9976120202446246,
          -0.4566544328175506,
          -0.7747428844303074,
          -0.4065285784372873,
          -0.828457042681643,
          -1.4485027918845061,
          -1.2742104613582974
        ],
        [
          -1.0365956088764785,
          -2.2633756798953084,
          -2.209775511926087,
          -2.1419828525299804,
          -1.0075817458257357,
          -0.554118022643799,
          -0.6522119591863845,
          -1.0726088966793772,
          -1.423266892171108,
          -0.9609540515509127
        ],
        [
          -1.136435801567652,
          -1.8986695803376175,
          -2.7206145601031624,
          -1.7066786198801234,
          -0.7296021462612017,
          -0.876623952149816,
          -1.0762131454700101,
          -1.1005424940729345,
          -1.7810879281493799,
          -0.9301173023545548
        ]
      ],
      "b": [
        -0.9949592107300633,
        0.27349338673824686,
        -2.0742150723435344,
        -2.6999106734508582,
        -4.638773810247357,
        -5.299107575989495,
        -5.424844958827403,
        -5.669216866827516,
        -5.664385560560459,
        -5.6549662978020185
      ]
    }
  ]
}